import numpy as np
w0 = np.array([
[ +1.8523, +0.1934, -0.8175, -0.7890, -0.1785, -0.3139, +0.7361, +0.8393, -0.2786, -0.5131, +0.5102, +0.3385, -0.0469, -0.7150, +0.0694, +0.7856, -0.6446, -1.1145, -1.5071, -0.7595, +0.1902, +0.9151, +0.2063, -0.7301, -0.4521, -0.2389, -0.3104, +0.7375, -1.0042, -0.8364, +0.2151, +0.3463],
[ -0.0958, +0.0910, +0.3380, -0.1053, -0.1425, +0.0667, +0.2151, +0.0907, +0.0818, -0.0944, +0.3149, +0.1103, -0.0393, -0.0921, +0.0525, +0.2603, -0.1972, -0.1681, +0.1397, -0.0351, +0.0568, -0.0953, +0.3332, -0.1326, -0.0851, -0.1296, +0.0224, +0.1959, -0.0634, -0.2410, +0.0323, +0.0845],
[ +0.1329, -0.9267, -0.7003, -0.3036, -1.0869, +0.8448, +0.2296, +0.3503, +1.0589, -0.3290, -0.4774, +0.4274, -1.0041, +1.2005, +0.5133, +0.5221, -0.3374, -0.5340, -0.1479, -0.3072, -0.2307, -0.8913, -1.2154, +1.3127, -0.4622, -0.5101, -0.1291, +0.3783, -0.3833, -0.5634, +0.8026, +0.4370],
[ +0.0613, +0.0854, +0.7458, -0.2171, +0.1168, +0.0966, +0.3250, +0.1905, -0.0578, -0.1769, +0.6709, +0.2740, -0.0882, -0.0587, +0.2339, +0.3762, -0.2398, -0.3056, +0.0641, -0.3717, +0.1202, -0.2808, +0.7501, -0.1277, -0.2181, +0.2568, -0.1593, +0.2736, -0.2018, -0.3430, +0.1204, +0.1575]
])
b0 = np.array([ +0.3361, +0.0654, -0.8125, +0.5295, +0.5737, +0.2630, -0.5423, -0.6796, +0.4759, +0.3850, -1.0151, +0.6088, +0.4845, +0.0631, -0.1981, +0.5163, -0.6625, -0.3721, +0.3806, -0.4554, +0.5630, -0.3614, +0.6948, +0.1545, -0.5292, -0.4396, +0.3434, +0.6515, -0.7209, +0.4918, -0.5978, -0.3830])
w1 = np.array([
[ -0.3436, +0.0723, -0.2145, -0.0926, -0.5156, -0.3807, +0.3583, -0.5979, -0.0838, -0.4985, -0.4406, +0.4524, -0.2903, -0.3464, -0.8365, -0.5745, +0.4243, -0.1636, +0.2141, +0.5015, -0.2379, +0.7602, -0.3949, -0.7997, -0.2467, -0.0009, -0.2911, +0.1483, +0.0605, +0.3104, -0.2363, +0.0406],
[ +0.0270, -0.2270, +1.3582, +0.2566, -0.4322, -0.3314, +0.1527, -0.5468, -0.6440, +0.5757, -0.3055, -0.5388, -0.1305, +0.1968, -0.5448, +0.1051, +0.3594, +0.9839, -0.4321, +0.5811, +0.2743, -0.0029, +0.5523, +0.3300, -1.1966, -0.0377, -0.3197, +0.6569, -0.4952, +0.1972, -0.8665, +0.3132],
[ +0.3595, -0.4865, -0.0136, -0.5886, +0.4094, +0.0479, -0.2941, -0.0253, -0.1607, -0.3256, -0.0913, +0.0269, +0.2120, +0.5958, +0.1538, +0.0540, -0.2444, -0.4515, +0.6763, +0.0500, -0.2671, -0.1644, +0.5109, -0.2040, +0.2576, +1.0289, +0.6433, +0.0381, -0.2002, +0.0613, +0.2889, +0.5504],
[ -0.1578, +0.3052, +0.3625, +0.5624, -1.2711, +0.5611, +0.7235, -0.2347, -0.1864, +0.1698, -0.1696, -0.9598, +0.2095, +0.3695, -0.3229, -0.0689, +0.3530, +0.6157, -0.7606, -0.0061, +0.7230, +0.7863, +0.9847, +0.5202, -0.7701, -0.4422, -0.3078, -0.1730, -0.6553, -0.1608, -0.7505, -0.6466],
[ -0.0370, -0.0248, +0.2500, +0.4171, -0.2880, +0.2455, +0.3292, -0.4115, -0.1767, +0.1673, -0.0419, +0.1427, -0.3951, +0.2237, -0.1194, +0.7009, +0.0254, +0.3181, -0.1545, +0.6843, +0.5100, +0.3009, -0.2935, +0.7967, -0.0253, -0.0061, -0.5715, +0.2621, -0.0522, -0.0369, -0.3575, +0.0072],
[ -0.7807, +0.7918, -0.2183, +0.0484, -0.6213, -0.2493, +0.2142, -0.7878, +0.3826, -1.0299, -0.4162, +0.1903, -0.3985, -0.8218, -0.4818, -0.2696, -0.2995, +0.3932, -0.2347, +0.5107, +0.8083, +0.6357, -0.2081, -1.3114, +0.5257, -1.0052, +1.1821, +0.9101, -0.2247, -0.2393, -0.3093, -0.5938],
[ -0.2712, -0.4137, -0.1681, -1.0778, +0.9036, -0.6988, +0.0566, +0.2132, +0.4327, -0.3022, +0.4118, +0.3907, -0.3704, -0.1011, +0.2108, -0.4366, -1.0290, -0.4579, +0.4375, +0.0687, +0.0361, -0.2386, +0.1015, -0.0953, +0.2281, +0.8079, +0.1087, -0.0108, +0.1194, +0.0279, +0.7109, +0.0151],
[ +0.0809, -0.2827, +0.0080, -0.4579, +0.8608, -0.3491, -0.5815, +0.4523, +0.5687, +0.2242, +0.4603, +0.3548, -0.2476, +0.1254, -0.0975, +0.5157, -0.5971, -1.1774, +0.3507, +0.0818, -1.0868, -0.1058, +0.0646, -0.3791, +0.4715, +0.0344, +0.5039, -0.1760, +0.5974, +0.2694, +0.4938, +0.8563],
[ -0.4283, +0.4421, +0.3965, +0.2041, -0.6064, -0.1220, -0.4016, -0.5999, +0.3324, -0.6228, -0.1681, +0.1843, -0.0429, -0.3744, -0.5742, -0.6382, +0.3114, -0.1226, -0.1740, +0.2598, +0.5951, +0.2703, -0.4174, -0.5968, +0.7065, -1.0068, +0.0955, +0.5223, -0.2632, +0.6660, -0.4174, -0.6756],
[ -0.0100, +0.1472, +1.0226, +1.1950, -1.0829, +0.1695, +1.0428, +0.4644, -0.7718, -0.3295, +0.0599, -1.0157, -0.1383, +0.2210, -0.4816, +0.4167, +1.2494, +0.9047, -0.6743, +0.1222, +0.7531, +0.3185, +0.8774, +0.0196, -0.5617, +0.1301, -0.2101, -0.1021, -1.0490, +0.0839, -1.3051, -0.7480],
[ -0.2390, -0.2766, +0.5255, -0.0449, +0.3693, -0.3581, -0.4678, +0.0650, +0.2976, -0.0999, +0.2578, +0.5464, -0.6320, +0.3895, +0.2962, -0.5789, -0.3900, -0.4024, +0.8443, -0.1801, -0.6757, -0.1772, +0.3570, -0.4812, +0.6828, +0.5306, +0.6557, +0.0901, +0.8386, -0.2695, +0.4987, +0.3167],
[ -0.1856, +0.0737, -0.0763, +0.3858, -0.2609, -0.2861, -0.0685, -1.4036, +0.0155, -0.4233, -0.7831, +0.0448, -0.9790, -0.1152, -1.1473, -0.9912, +0.7409, +0.5040, -0.6564, +1.6880, +0.2737, +1.0867, -0.5855, -0.3011, -0.3893, -0.5916, +0.6468, +0.9649, -0.0377, +0.2707, +0.1973, -0.8938],
[ +0.2420, -0.2801, +0.6669, +0.3524, -0.9366, +0.0055, +0.9611, -0.9464, -0.8174, -0.1290, -0.2454, -1.0126, -0.6171, +0.7676, -0.5123, +0.3433, +1.2198, +0.7669, -1.2810, +0.1791, +0.2785, +0.2607, +0.1870, +0.1315, -0.9357, -0.2677, -0.5370, +0.9795, -0.3126, +0.5264, -0.5619, -0.1444],
[ -0.4142, +0.8237, -0.4700, -0.6263, +0.2134, +0.2618, -0.4446, +0.4993, +1.1963, -0.5876, -0.1733, +0.4402, +0.1448, -0.3545, +0.3420, +0.0275, -0.0267, -0.2791, +0.1624, -0.4098, -0.0354, +0.1576, -0.6617, -0.4782, +0.4148, +0.3835, +0.6026, -0.1002, +0.2926, -0.5099, +0.3150, -0.3240],
[ -0.4306, +0.0072, -1.0163, -1.0758, +0.1613, +0.0924, -0.8346, +0.4599, +0.7744, +0.1967, +0.3544, +0.5478, -0.0277, -0.9434, +0.7362, +0.1670, -0.6177, -0.1859, +0.9820, -0.1757, +0.2875, -0.3624, -0.5886, -0.2651, +0.9400, -0.1792, +0.3687, -0.4631, +0.1974, +0.0857, +1.3278, +0.1316],
[ -0.8496, +0.2070, -0.1994, +0.1745, -0.3377, -0.4084, -0.0701, -0.6930, +0.2407, -0.7557, -0.5797, -0.3315, -0.7118, -0.5537, -0.2527, -0.4474, +0.2815, +0.2752, -0.2898, +0.6951, +0.2372, +0.6793, -0.5222, -0.1770, +0.0707, +0.2891, +0.6985, +0.7708, +0.6977, +1.4686, -0.4780, -0.3331],
[ +0.2901, -1.1267, +0.0724, -0.1446, +0.3963, +0.1397, -0.4798, +0.8531, +0.4954, +0.3101, +0.7283, -0.3538, +0.5933, +0.3351, +0.9416, +0.7260, -0.2020, -0.4348, +0.2544, -0.6057, -0.2274, -0.6751, +0.5415, -0.1531, +0.4371, +0.2759, -0.5337, -0.9641, -0.3231, -0.7043, -0.1469, +0.4146],
[ +0.8763, -0.4652, +0.2689, -0.1699, +0.0770, +1.0654, -0.0924, +0.5326, +0.1624, +0.3640, +0.7142, -0.4013, +0.5913, -0.3867, -0.1614, +0.2449, -0.4823, +0.0160, +0.3799, -0.6124, -0.3449, -0.2422, +0.5065, +0.8135, +0.3699, -0.0637, -0.3422, -0.5083, -0.5874, -0.8585, -0.0404, +0.4071],
[ -0.3327, +0.1645, +0.0996, +0.6214, -0.5122, +0.4477, -0.1306, -0.3433, +0.3022, -0.1858, -0.4185, -0.0717, +0.2451, -0.1284, -0.5517, +0.3784, -0.2522, +0.5524, -0.4557, +0.3021, +0.1788, -0.0678, -0.1542, +0.1423, +0.2200, -0.1097, -0.3685, -0.3029, -0.4150, -0.2375, +0.0784, +0.0730],
[ +0.6790, -0.1184, +0.0445, +0.0477, -0.3112, +0.2693, +0.1021, +0.6889, +0.5704, +0.9302, +0.0273, +0.0863, +0.5969, -0.3076, +0.4026, +0.1227, -0.1604, -0.2401, -0.0478, +0.0635, -0.0205, -0.1786, +0.6150, +0.5955, +0.5064, +0.3694, -0.3881, +0.2255, -0.1356, -0.7140, +0.0984, +0.2537],
[ -0.5897, -0.0209, -0.3225, +0.8210, +0.0205, +0.2388, +0.0314, -0.6059, -0.1301, +0.1414, -0.6819, -0.0006, -0.3654, +0.0209, -0.6151, -0.1105, +0.2438, +0.1260, -0.1950, +0.2558, +0.2919, +0.8054, -0.4076, +0.1082, -0.8244, -0.1956, +0.0450, +0.9788, -0.3841, +0.1208, -0.0228, -0.2478],
[ +0.5089, -0.6880, +0.1486, -0.0107, +0.1141, -0.3287, -0.1541, +0.5576, -0.4165, +0.6955, +0.8323, +0.1608, +1.1550, +0.9082, +0.4460, +0.3092, -0.1242, +0.0814, +0.2901, -0.5236, -1.0494, +0.1629, +0.2911, +0.9364, +0.1174, +0.2949, -0.7224, -0.1496, -0.1862, -0.4044, +0.2118, +0.7673],
[ -0.0815, +0.4888, +0.2891, +0.7080, -0.5906, -0.3725, +0.1534, -0.8285, +0.0527, +0.0494, -0.0922, -0.3656, -0.9276, +0.2920, -0.0273, +0.0054, +0.0004, +0.3984, -0.4297, +0.7202, +0.1474, +0.2472, -0.7377, +0.1050, -0.4103, -0.2391, -0.5349, +0.5608, -0.4231, +0.6882, -0.6447, -0.4677],
[ -0.5657, +0.6709, -0.4755, +0.3750, -0.5832, +0.4592, +0.2839, -0.5320, +0.4660, -0.5713, +0.2066, +0.1767, -0.0513, -0.5020, -0.7255, -0.4783, +0.0715, +0.3832, -0.0443, +0.6039, +0.3808, +0.3042, -0.0894, -1.1586, -0.1133, -0.4486, +0.9189, +0.6243, +0.1245, +0.6280, -0.2199, -0.9875],
[ +0.8177, -0.4781, +0.3908, -0.0032, +0.2275, +0.1977, +0.0681, +0.4527, -0.2543, +0.9179, +0.8374, +0.2091, +0.3025, +0.2658, +0.5622, +0.3701, -0.2986, -0.0949, -0.2545, -0.9839, +0.0966, +0.0133, +0.4317, -0.0793, +0.4476, +0.9349, -0.4159, -0.4987, -0.1959, +0.0745, -0.0025, +0.9063],
[ +0.0524, -0.4437, +0.4802, +0.3180, -0.3552, -0.1000, +0.1595, -0.0200, -0.1355, +0.0350, -0.1409, -0.3416, -0.4350, +0.3690, -0.0850, -0.2501, -0.2870, +0.1978, -0.5155, -0.2798, -0.4137, -0.5106, +0.7452, +0.1961, +0.2298, +0.4799, +0.1386, +0.2062, -0.3383, +0.1108, +0.2388, +0.0165],
[ -0.3962, +0.8133, +0.2383, +0.5291, -0.7725, -0.0485, +0.3144, -0.3257, -0.3853, +0.2888, -0.2339, -0.9539, +0.2294, -0.0684, -0.7921, +0.0894, +0.2392, +0.4656, -0.1733, +0.3629, +0.6392, +0.4469, -0.0267, -0.0393, +0.0735, -0.3335, -0.4118, +0.5211, -0.2728, -0.4122, -0.1948, -0.8705],
[ -0.7001, +0.2939, -0.0740, +0.0878, -0.0501, -0.2132, -0.0277, -0.7483, -0.2358, -0.6066, -1.4313, +0.0068, -0.9318, +0.0397, -0.8930, -0.6674, -0.1503, +0.5818, -0.2634, +1.1606, +0.4039, +0.8760, -0.5367, -0.9333, -0.1406, -0.7783, +0.0430, +1.3616, +0.3923, +0.8471, -0.2005, -0.8192],
[ +0.5697, -0.2478, -0.1896, -0.5671, +0.3510, +0.4465, -0.3939, +1.6079, +0.0175, +0.8998, +0.8862, -0.0014, +0.4928, +0.4536, +1.1080, +0.4983, -0.4260, +0.1969, +0.0409, -0.6849, -0.7272, -1.0947, +0.7172, +0.7194, +0.8508, +0.7461, -0.5696, -1.2701, -0.5705, -0.5435, -0.1932, +0.7353],
[ +0.2099, -0.0942, +0.7211, +0.3417, -0.4058, +0.2518, +0.8645, -0.3337, -0.1443, +0.2148, -0.3658, -0.4689, +0.0348, +0.2056, +0.0304, +0.1054, +0.4936, +0.5785, +0.2090, +0.4745, +0.0413, +0.0683, +0.1329, +0.5772, -0.5519, -0.3544, -0.1511, -0.0450, -0.4497, +0.0606, -0.3372, -0.0152],
[ +0.0429, +0.0958, -0.5935, -0.6327, +0.3820, -0.2208, -0.3723, +0.5564, +0.9268, +0.3025, -0.0141, +0.8246, -0.0898, -0.4228, +0.1495, +0.3102, -0.4608, -0.0579, +0.9676, -0.7751, -0.0802, -0.4144, +0.0852, +0.1745, +0.9878, +0.1096, +0.3361, -0.9239, +0.4504, -0.5389, +0.2613, -0.4608],
[ +0.1881, -0.3258, -0.2950, -0.8265, +0.8222, -0.0689, -1.0547, -0.0542, +0.2205, +0.0660, -0.2020, +0.8306, -0.2130, -0.5342, +0.6728, +0.2013, -1.3373, -0.6622, +0.7611, -0.1091, -0.6866, +0.0841, -0.8982, -0.2803, +0.6693, +0.3188, +0.4717, -0.5275, +0.5639, -0.0030, +1.0637, -0.1286]
])
b1 = np.array([ -0.0420, +0.1825, +0.0659, +0.4163, -0.4189, -0.0464, +0.3715, -0.4666, +0.3727, -0.1974, -0.2933, -0.2210, -0.0380, +0.2649, -0.6120, +0.0250, +0.2756, +0.4967, -0.2733, +0.3033, +0.4673, +0.4333, -0.2279, -0.0708, +0.1908, -0.2295, -0.2075, +0.4307, -0.1218, +0.0557, -0.3547, -0.1668])
wf = np.array([
[ +0.0838],
[ -0.5386],
[ +0.0861],
[ +0.0350],
[ -0.0081],
[ -2.5357],
[ -0.5484],
[ -0.0104],
[ -0.3703],
[ -0.7696],
[ +0.0149],
[ +0.3101],
[ -0.4259],
[ +0.3784],
[ -0.1632],
[ +0.0054],
[ -0.0709],
[ -0.1804],
[ +0.1169],
[ +0.0005],
[ -0.3623],
[ +0.3185],
[ -0.6237],
[ -0.4657],
[ -0.5347],
[ +0.1558],
[ +0.4245],
[ +0.2290],
[ +1.2330],
[ +1.4817],
[ +0.2593],
[ +0.3468]
])
bf = np.array([ +0.0467])
