import numpy as np
w0 = np.array([
[ -0.0507, +0.0650, -0.2477, -0.3366, -0.0625, +0.0722, +0.1957, +0.1314, -0.0137, -0.0186, +0.0468, -0.1347, +0.0457, +0.0746, -0.0114, +0.1662, +0.1076, -0.0046, -0.2636, +0.0048, -0.0332, +0.0035, +0.0872, -0.2003, +0.1828, +0.3887, +0.0270, +0.0274, +0.0337, +0.0973, -0.2963, -0.0602],
[ +0.2364, -0.3821, +0.0852, +0.2834, -0.0115, +0.2801, -0.0464, -0.0935, -0.0047, -0.2567, +0.0082, -0.2494, -0.0486, -0.1446, +0.0503, +0.0619, -0.3029, -0.0105, +0.0361, +0.0014, -0.0125, +0.0865, -0.2356, +0.1794, +0.3153, -0.0293, +0.0347, +0.2383, -0.3610, -0.0425, +0.0749, +0.0634],
[ +0.5119, +0.2800, -0.0834, -0.6005, +0.0781, -0.4859, +0.0383, -0.0089, +0.2097, +0.1098, -0.1985, +0.3145, -0.0605, +0.2988, -0.0773, +0.1044, +0.0048, +0.0339, +0.2181, -0.0410, +0.0083, -0.2828, +0.2943, -0.2561, +0.3650, -0.1107, +0.3608, +0.0166, +0.0255, +0.2079, +0.5494, +0.1635],
[ +0.3140, -0.1540, -0.0760, -0.1572, +0.1822, -0.1468, -0.0292, +0.5321, -0.6024, -0.4645, +0.7872, +0.4321, -0.5442, -0.2104, -0.4445, +0.3998, -0.5671, +0.0486, -0.3305, +0.0679, -0.6734, -0.2162, -0.1528, +0.5546, -0.2737, +0.5237, +0.6699, -0.5053, -0.5715, +0.3561, -0.3883, -0.2420],
[ -0.4115, +0.5742, -0.2925, +0.3679, +0.0216, +0.2787, +0.2814, +0.1364, +0.0706, +0.4587, -0.0691, +0.2642, +0.0047, +0.0732, -0.0478, +0.2389, +0.1725, -0.0252, -0.4809, +0.0889, +0.0674, +0.1598, +0.1157, +0.1738, +0.6139, +0.3227, -0.2695, -0.2792, +0.3783, -0.0162, +0.2271, -0.0740],
[ -0.1783, +0.2512, -0.1506, -0.0090, +1.3689, -0.0053, -0.1427, +0.3588, -0.4329, -0.3608, +0.6861, -0.0143, -0.5334, +0.0053, -0.6768, +0.4225, +0.1571, +0.0034, -0.1890, +0.0010, -0.3439, -0.2043, -0.0497, +0.4280, -0.0570, -0.6166, +0.7641, -0.0246, -0.3713, -0.0043, +0.1859, +0.0333],
[ -0.2866, -0.9844, -0.3098, +0.1310, +0.1222, -0.2026, +0.2731, +0.1260, +0.0092, -0.1705, -1.2719, +0.3482, +0.1545, -0.2147, +0.2272, -0.4437, -0.4019, -0.0287, +0.4913, +0.1454, -0.1984, +0.1502, +0.4149, +0.2777, -0.0980, -0.0463, -0.6639, +0.3259, +0.0930, -0.1083, +0.0007, -0.4649],
[ +0.2928, +0.3390, +0.2987, +0.2430, +0.1594, +0.9848, -0.5738, +0.2937, -0.4635, +0.5964, +0.0069, +0.1938, -0.2176, +0.2957, +0.1702, -0.4942, +0.3234, -0.9129, -0.4230, +0.9073, +0.3781, -0.1807, +0.7131, -0.1316, +0.1205, +0.5481, -0.4449, -0.7216, -0.6765, -0.8005, -0.3635, +0.9511]
])
b0 = np.array([ +0.0057, -0.1196, +0.0820, +0.2097, -0.0600, -0.4329, +0.0667, -0.0579, +0.0862, -0.2106, -0.1373, -0.0007, -0.1327, -0.2599, -0.1191, +0.0592, -0.0277, +0.7881, +0.0661, -0.6315, -0.1417, +0.0089, -0.2142, -0.2490, -0.2258, -0.1623, +0.0418, +0.3430, +0.1724, +0.7273, +0.1504, -0.4737])
w1 = np.array([
[ -0.2782, -0.6425, +0.3498, +0.7648, -0.4881, +0.2460, +0.4810, -0.2867, -0.4079, -0.9511, +0.3107, -0.4657, +0.0594, -0.3624, +0.2484, +0.2701, -0.4828, -0.2715, +0.3884, -0.0446, +0.2885, -0.2338, +0.1982, -0.1677, +0.3224, +0.4182, -0.4594, +0.0065, -0.1995, -0.3359, +0.2745, +0.0907],
[ -0.3717, -0.1488, -0.0278, +0.2538, -0.0035, +0.4231, +0.4829, -0.2728, -0.3478, -0.5562, +0.1742, -0.2723, -0.0226, -0.1898, +0.4636, -0.0938, -0.1647, -0.5951, +0.4612, +0.3109, +0.4770, -0.6198, +0.0297, +0.0584, +0.4410, +0.4312, +0.2029, -0.3000, -0.2030, -0.1384, -0.5707, +0.0310],
[ -0.1129, -0.2157, +0.3728, +0.2374, -0.3441, +0.4118, +0.4504, -0.1378, -0.0927, -0.1499, +0.7969, -0.5532, -0.6413, -0.8887, +0.0522, -0.0458, -0.2943, -0.7248, +1.1951, -0.0213, +0.3733, -0.3854, +0.1206, +0.1092, +1.1805, +0.3167, -0.5073, -0.3996, -0.3259, -0.4456, -0.0896, -0.0752],
[ +0.1081, -0.2577, -0.0164, +0.1169, +0.1137, -0.0430, +0.3631, -0.4818, -0.0074, +0.0709, +0.1285, +0.0677, +0.0320, +0.4466, +0.1836, +0.0982, -0.0099, -0.1219, +0.1876, +0.1375, +0.2894, -0.1649, +0.0887, +0.2059, -0.0923, +0.0307, +0.0390, -0.4794, -0.1659, -0.4064, -0.1241, +0.2021],
[ -0.3112, -0.0809, +0.5867, +0.3920, -0.2208, +0.0297, -0.0395, -0.7156, -0.4976, -0.5549, +0.1097, -0.1043, +0.2834, +0.0259, +0.4560, -0.0477, -0.4924, -0.3479, -0.0289, -0.2006, +0.1289, -0.1546, +0.2806, -0.5477, -0.3491, +0.3095, -0.7494, +0.2149, -0.0540, -0.1838, -0.4608, +0.1304],
[ -0.0187, +0.6017, -0.1715, -1.1488, +1.1495, +0.2043, +0.1834, +1.2631, +0.3942, +0.6680, -0.0180, +0.1940, -0.0233, -0.2062, +0.0003, -0.2238, +0.4490, +0.8726, +0.2790, -0.1160, -0.4881, +0.0171, -0.3949, +0.3606, -0.0790, -0.9119, +0.1120, -0.1923, +0.4159, -0.1370, -0.3067, +0.1847],
[ +0.1722, -0.1407, +0.1512, -0.0303, +0.3308, -0.2103, -0.5034, +0.3011, +0.7885, +0.1598, +0.1173, +0.1607, -0.0467, +0.2339, -0.1301, -0.1674, +0.4377, +0.0584, -0.5279, -0.5033, +0.1287, +0.1929, -0.2628, -0.1494, -0.3209, -0.0948, +0.5328, +0.3445, +0.1286, +0.8023, +0.4453, +0.0251],
[ -0.6972, -0.3188, +0.3213, +0.6795, -0.2699, +0.2859, +0.3194, -0.3171, -0.2535, -0.4303, +0.2850, -0.2383, +0.0541, -0.1921, -0.0699, +0.1583, -0.3117, -0.5514, -0.2100, +0.5436, +0.9002, -0.5385, +0.5977, +0.0175, +0.1197, +0.6978, -0.8569, +0.3066, -0.1425, -0.6011, -0.0938, +0.1011],
[ +0.6711, +0.9504, -1.2581, -1.1893, +0.9486, -1.3948, -1.0816, +0.7567, +1.2098, +0.9261, -0.3573, +1.0233, +0.8933, +0.6998, -0.4931, -0.1399, +0.7571, +0.7317, -0.3249, -0.4881, -1.3208, +0.9907, -0.9537, -0.8377, -0.0016, -0.7124, +1.2237, +0.0619, +0.9369, +0.6470, +0.8262, -0.5947],
[ -0.4404, -0.2718, +0.5930, +0.1655, -0.6523, +0.5668, +0.6837, -0.0218, -0.3499, -0.6286, +1.0142, -0.5098, -0.0509, -0.9821, -0.1152, -0.0757, -0.4776, -0.7141, +1.0101, +0.3875, +0.2924, -0.5478, +0.6585, +0.1732, +1.0535, +0.0345, -0.0231, -0.9697, -0.6040, -0.7749, -0.1123, +0.4247],
[ -0.0702, +0.0172, -0.1155, +0.2796, -0.1599, +0.0419, -0.1513, +0.0429, -0.1496, -0.0537, -0.0841, -0.0430, +0.2191, +0.0856, -0.0481, +0.3615, -0.4870, -0.0302, -0.0445, -0.2617, +0.3245, -0.1873, +0.0184, -0.4764, +0.2603, -0.2128, -0.0859, -0.1353, +0.0175, +0.2530, -0.1981, +0.0671],
[ -0.3114, -0.2072, -0.0562, -0.3048, +0.1105, +0.0451, +0.0429, -0.4001, -0.0585, -0.0841, +0.1619, -0.1706, -0.4206, -0.2813, +0.1708, -0.2783, +0.2629, -0.2078, +0.1103, +0.0729, +0.3883, +0.1533, +0.4697, -0.4608, +0.3822, -0.2135, +0.0251, +0.2311, -0.6348, +0.1038, -0.0099, +0.0188],
[ +0.6567, +0.6472, -0.2208, -0.6410, +0.7515, -0.6583, -0.1306, +0.4960, +0.7112, +0.7559, -0.4863, +0.7615, +0.3475, +0.3578, -0.6423, -0.7305, +0.4496, +0.5858, +0.2262, -0.9714, -0.5541, +0.4223, -0.6371, -0.2976, +0.1440, -0.5607, +0.8719, +0.1917, +0.6669, +0.2205, +0.4371, -0.0096],
[ +0.0747, +0.0597, +0.2854, -0.0428, -0.1077, -0.2524, -0.2139, -0.4816, -0.5330, -0.2836, -0.2514, -0.2864, -0.2614, +0.1469, -0.0715, -0.1053, +0.1722, -0.3326, -0.3084, +0.2325, +0.0458, -0.1702, -0.2496, +0.2443, +0.1025, -0.0729, -0.2021, -0.0423, +0.0715, -0.0388, +0.2418, -0.1662],
[ -0.9832, -0.5668, +0.4177, +0.1150, -0.6366, +0.9407, +0.6264, -0.1174, -0.1787, -0.9461, +0.7055, -0.7479, -0.5521, -0.3749, +0.3204, -0.3381, -1.0709, -1.0342, +0.5263, +0.1040, +0.6388, -0.2039, +0.6444, +0.8525, +0.7034, +0.5724, -0.4909, -0.6037, -0.6171, -0.5424, -0.3661, +0.1547],
[ +0.5762, +0.7100, -0.1561, -0.4949, +0.2167, -0.1329, +0.0274, +0.9123, -0.0150, -0.1167, -0.4456, +0.7237, -0.2675, +0.7175, +0.0738, -0.3238, +0.0863, +0.3904, -0.7261, +0.0150, +0.1192, +0.1391, -0.2070, -0.2302, -0.4648, -0.0824, -0.1328, -0.0272, +0.2936, +0.6339, +0.3979, -0.5830],
[ -0.6145, -0.7638, +0.0130, +0.3024, -0.6062, +0.2519, +0.2609, -0.2015, -0.3038, -0.0381, +0.1301, -0.0616, -0.2211, -0.1859, +0.3122, +0.1223, -0.5655, -0.3890, +0.6470, +0.1547, +0.4469, -0.0773, +0.2434, +0.2135, +0.6839, +0.0257, -0.2946, -0.5192, -0.1915, -0.6474, +0.0427, +0.2773],
[ -0.4868, -0.5928, +0.2136, -0.6334, -0.4880, +0.3527, +0.3894, -0.0064, +0.2704, +0.1144, -0.1451, -0.6263, -0.1524, -0.2036, +0.0119, -0.2089, -0.0564, -0.1284, -0.6279, -0.3109, +0.0013, -0.6843, +0.1151, -0.1951, -0.4336, +0.0157, -0.1404, +0.0942, -0.2032, +0.0412, -0.2470, -0.6789],
[ +0.1961, +0.5785, -0.2397, -0.5497, +0.6149, -0.1996, -0.3912, +1.0888, +0.4096, +0.7273, -0.2998, +0.3737, +0.0817, -0.0446, -0.2839, -0.2581, +0.4784, +0.9590, -0.1123, -0.0748, -0.4587, +0.2343, +0.0279, +0.1094, +0.1783, -0.6214, +0.5203, +0.0093, +0.8373, +0.0915, +0.2450, -0.6463],
[ +0.0777, +0.3709, +0.0688, +0.0533, -0.3543, -0.0922, -0.0015, -0.4440, +0.2290, -0.0347, +0.0754, +0.1869, +0.3823, -0.2724, +0.3733, -0.2012, +0.3047, +0.3960, +0.1149, +0.2628, +0.4756, +0.6108, -0.7071, -0.1002, +0.0360, -0.0426, -0.4351, -0.2745, +0.3970, +0.0917, +0.0346, +0.4739],
[ -0.5419, -0.6649, +0.6917, +0.4013, -0.9796, +0.5629, +1.1800, -0.2009, -0.6371, -0.6703, +0.5288, -0.2150, -0.2451, -0.7106, +0.4190, +0.4666, -0.1434, -1.0208, +0.6414, +0.0940, +0.4855, -0.5201, +0.7292, +0.6012, +1.4154, +0.5599, -0.5631, -0.8725, -0.8161, -0.9386, -1.0984, -0.0474],
[ -0.0714, -0.2221, -0.0504, -0.2401, +0.0368, -0.2489, -0.1844, +0.2672, +0.3121, -0.2752, -0.5694, +0.0516, -0.0868, -0.4151, -0.1620, -0.2472, +0.0492, +0.1082, -0.0916, -0.0262, +0.2305, -0.0367, +0.1779, -0.0433, +0.2598, -0.2208, +0.2753, -0.3703, +0.1089, -0.0237, -0.1621, +0.2818],
[ +0.1512, -0.5005, +0.2366, +0.3252, +0.1112, -0.0359, -0.2811, +0.2217, -0.0738, +0.0711, +0.0036, +0.0439, +0.1522, -0.3474, +0.3493, -0.5286, -0.3341, +0.0481, +0.2601, +0.6563, +0.0298, -0.1687, -0.1195, -0.1041, -0.0720, +0.2955, -0.5505, -0.1154, -0.4585, -0.0562, -0.1111, +0.0625],
[ -0.2423, -0.1587, +0.0751, +0.0691, +0.0631, -0.1388, -0.2346, -0.6648, +0.0091, -0.1338, -0.2929, +0.5101, +0.1601, +0.4058, -0.6323, +0.1300, -0.2134, +0.2004, -0.2830, -0.1615, +0.0354, +0.2301, -0.1580, -0.3619, +0.0903, +0.2389, -0.0859, +0.1960, -0.0419, +0.6893, +0.1362, -0.1094],
[ -0.3499, +0.0419, +0.2415, -0.1796, +0.1340, -0.1301, +0.0018, +0.1226, +0.0078, +0.1022, -0.1674, +0.1422, +0.4598, +0.1571, +0.2113, +0.4235, +0.1438, -0.1432, +0.4518, +0.2191, -0.0120, -0.0229, +0.2918, +0.2991, -0.0242, -0.1900, -0.2439, -0.2081, +0.0148, +0.4102, +0.2339, -0.0568],
[ -0.1472, -0.8117, +0.1274, +1.0036, -0.9466, +0.2013, +0.3250, -1.0300, -0.3737, -0.7328, +0.3531, -0.2595, -0.1639, +0.1713, -0.1096, -0.1711, -0.4419, -0.1378, +0.3184, +0.2025, +0.2181, -0.2272, +0.6774, +0.0413, +0.1562, +0.7887, -0.5574, -0.3100, -0.2299, +0.2694, -0.2523, +0.1159],
[ +0.4290, +0.4629, -0.1843, +0.4096, +0.3408, -0.9806, -0.2787, +0.6140, +0.3441, +0.3062, -0.4401, +0.4433, +0.1713, +0.3300, +0.0412, -0.6050, +0.3959, +0.5081, -0.8094, -0.4555, -0.2437, +0.6724, -0.6986, +0.3017, -0.6064, -0.4160, +0.1935, +0.3752, +0.1117, +0.4914, +0.4524, -0.3478],
[ -0.3687, -0.2597, +0.1578, -0.1174, -0.1983, +0.4064, +0.0508, +0.2549, -0.3668, -0.1816, +0.8293, -0.1610, -0.0306, -0.4070, -0.3182, +0.1321, +0.1178, -0.2989, +1.3036, -0.2909, +0.5088, -0.4597, -0.0561, +0.0681, +1.1488, +0.0648, -0.0972, -0.4044, -0.3905, -0.5992, -0.1778, -0.1980],
[ +0.3795, +0.1645, -0.2608, -1.0178, +1.1578, -0.4055, +0.0066, +1.0178, +0.7491, +0.3264, -0.2159, +0.2219, +0.0992, +0.4147, -0.1304, +0.0675, +0.4986, +0.9991, -0.2300, +0.0395, -0.5893, +0.4288, -0.4749, -0.2127, -0.2920, -1.0250, +0.3679, +0.1575, +0.6491, +0.3014, +0.0528, -0.1931],
[ -0.3429, -0.1458, +0.3488, +0.1944, -0.3637, +0.5460, +0.1360, +0.0596, +0.1691, -0.3039, -0.4306, -0.4164, -0.3023, -0.0089, -0.6115, -0.0090, +0.0885, -0.4127, +0.1332, -0.1059, +0.3063, +0.1971, +0.2198, -0.5083, -0.5130, +0.2030, +0.0843, -0.1516, -0.4105, -0.1578, -0.1953, -0.8693],
[ +0.1874, +0.0439, -0.4977, -0.2139, -0.0526, -0.3474, -0.1227, +0.2651, +0.2194, -0.0761, -0.2965, +0.1143, +0.0625, -0.2625, -0.2045, -0.2758, +0.4556, -0.0708, +0.1805, -0.3434, -0.1865, -0.0528, +0.0916, +0.2873, -0.3294, -0.0070, +0.1743, -0.0335, +0.1321, +0.3774, +0.2212, +0.2337],
[ +0.0173, +0.3747, -0.0990, +0.4062, +0.5852, -0.2111, -0.0404, -0.0806, -0.0285, +0.1579, -0.3067, +0.0269, -0.0644, -0.0066, +0.5747, +0.0453, +0.2807, +0.4827, +0.0023, -0.3700, -0.0239, +0.0215, -0.1144, +0.0698, +0.1508, +0.2531, -0.1782, -0.9747, -0.0833, -0.2725, +0.2722, +0.6253]
])
b1 = np.array([ -0.2801, -0.3488, +0.2815, +0.0576, -0.4348, +0.4772, +0.4047, -0.1530, -0.0489, -0.2832, +0.2159, -0.4684, -0.1252, -0.1178, +0.0263, +0.0177, -0.2952, -0.4128, +0.0295, +0.1750, +0.1939, -0.3399, +0.4542, +0.0833, +0.1815, +0.3116, -0.2964, -0.1003, -0.4183, -0.1756, -0.3015, -0.5533])
wf = np.array([
[ -0.0072],
[ -0.1816],
[ +0.0431],
[ +0.0069],
[ +0.0158],
[ +0.1897],
[ -0.0436],
[ +0.0326],
[ +0.1725],
[ +0.0832],
[ -0.0413],
[ -0.0557],
[ +0.9483],
[ -0.0349],
[ +0.0294],
[ +1.0689],
[ -0.0582],
[ -0.0174],
[ +0.0192],
[ +0.1491],
[ -0.2928],
[ +0.0107],
[ +0.1755],
[ -0.4031],
[ +0.1083],
[ -0.0411],
[ -0.1361],
[ +0.2016],
[ +0.0846],
[ +0.0715],
[ -0.1699],
[ +0.0097]
])
bf = np.array([ +0.0065])
